//Numpy array shape [3, 3, 16, 8]
//Min -0.816903173923
//Max 1.066997051239
//Number of zeros 0

#ifndef W10_H_
#define W10_H_

#ifndef __SYNTHESIS__
model_default_t w10[1152];
#else
model_default_t w10[1152] = {-0.0514088087, -0.1380808353, 0.1326522082, 0.0394568890, -0.2589239776, 0.1349649429, -0.1868378818, -0.3088432550, 0.0297678560, 0.0340918228, -0.1548614204, -0.2224597931, -0.0314164013, 0.1865402460, -0.0578659810, -0.1361404061, 0.0831443816, -0.0224527735, -0.0006268097, 0.2375088483, -0.1699219197, -0.0645827949, 0.0125920260, -0.3231708407, 0.0458011776, 0.0591095090, -0.1382962763, -0.0006808248, -0.1437164098, 0.0040641511, -0.0764760077, 0.2281896472, 0.0917126238, 0.0123915831, -0.0227933899, 0.2109432667, 0.0553922877, -0.0137806088, -0.0185605604, -0.0340602361, 0.1459561586, -0.0127179194, -0.0229582954, 0.0832753256, -0.0033964308, -0.0884716064, -0.2410164028, 0.0657167360, 0.1995133460, -0.1401543617, -0.1253983527, -0.1129116714, -0.0806180909, 0.2314241081, 0.1064359322, -0.2100239545, -0.1338293403, -0.0029677674, 0.0137903849, -0.1042880341, -0.1259972155, -0.1182770431, -0.2172438055, 0.0986953303, 0.1541740447, 0.0124157118, 0.1153530180, -0.1568097621, 0.0481727272, 0.2125165164, -0.0126959207, 0.0118731670, -0.0609877035, -0.1271367073, -0.2087638825, 0.0407414846, -0.0038104840, 0.0865174159, -0.2942130268, 0.1777695268, -0.0460395366, -0.2147506326, -0.0904233158, -0.1218559369, -0.0433802456, 0.1979887784, -0.0308813583, -0.2339003533, 0.0107661681, -0.1226015538, -0.0071234577, 0.0326928087, 0.1286695451, 0.0262670107, -0.1955056638, 0.1954322606, 0.2909411490, -0.1689984053, 0.1691255718, 0.1535984278, -0.0913792327, 0.1956493109, -0.2198728770, 0.0120091522, -0.3223035634, -0.1538553536, -0.0399848893, -0.0389469415, -0.0418379121, 0.1992155910, -0.1598767787, -0.1199008524, 0.1722530425, -0.1576178372, 0.1249150038, 0.0699268430, 0.0679340214, 0.0924503803, -0.2166765034, -0.0115635395, -0.2254006863, -0.1893818527, -0.0002166429, -0.2345189452, -0.0901152194, 0.2265197933, -0.3742809594, 0.0027366672, 0.1586406380, 0.0139934504, -0.0092975739, 0.1186738536, 0.1633024663, 0.2494561672, -0.2427464873, -0.1240133867, -0.3934207857, -0.2423461676, 0.0453755707, -0.0602914430, -0.2696862519, -0.0081018666, -0.2339575291, 0.1822474301, 0.0520270802, -0.0116258273, 0.1530255675, 0.1253887713, -0.1872929484, 0.0464419723, -0.1617420465, -0.0305199269, 0.0815950707, -0.0864283741, -0.0400631949, 0.1488254666, 0.0325324647, 0.2156567127, -0.1082895249, -0.0961228013, 0.1309301853, 0.1804190278, -0.0356530882, -0.1661431640, -0.0073388037, -0.0551206097, -0.0168761835, -0.0561647974, -0.0626707375, -0.1658166349, 0.0350516997, -0.0558902957, -0.1088505164, 0.1094664261, -0.1000453755, -0.1500550508, -0.1032392010, 0.0249555204, 0.1062360480, -0.0655169338, -0.0337776095, 0.0417554192, -0.0510836467, -0.2173215151, -0.0818100646, -0.2900163829, 0.0226482823, 0.0792529434, 0.1009586006, 0.1227901652, -0.2579427958, 0.0967830196, 0.0323012024, -0.1431964636, 0.0189119168, 0.0362231694, -0.0228333138, 0.0937053338, -0.1414630115, 0.0968528986, 0.0075210375, -0.0950578526, -0.0073777298, 0.1102041379, 0.0323712341, 0.1141331792, 0.1014620736, -0.1156521887, 0.2175072283, -0.0975513607, 0.0984784812, 0.2054450214, -0.1361656040, 0.0590054952, -0.0603615716, -0.1528295279, 0.0321787596, -0.1666936874, -0.1257123351, -0.0791527629, -0.1080828607, 0.0560113639, 0.0434578098, -0.1433733702, 0.1017858237, -0.1883906573, 0.0909778550, 0.1519690007, 0.0112887230, 0.0722263902, -0.1706648767, 0.1039713845, -0.0594427399, -0.0447023772, 0.0786187500, 0.0365307704, -0.0175923202, 0.1645254195, -0.1119756401, -0.0996897668, 0.3162792921, -0.1829916984, -0.1044405326, 0.3433114886, -0.1649277806, 0.1564646810, -0.0762329772, 0.0070736217, -0.3579404950, -0.0302451346, 0.1492656171, -0.0610874295, 0.1093904972, 0.0037103009, 0.1938173026, -0.0100642666, 0.1420086622, -0.0678886101, 0.0574770309, 0.1482390910, -0.0502068177, 0.3539903164, 0.1498816311, 0.1246049404, -0.0807374492, 0.0056602070, 0.0135409925, -0.1627543271, 0.0022680792, -0.0243638717, 0.1701311767, -0.0655120388, 0.1843907684, -0.0076863784, -0.1565863192, 0.2053353488, 0.1491354108, 0.1805215180, -0.0361406952, 0.0274614748, -0.0408970080, -0.1944819093, 0.2038555890, -0.0395155363, 0.0329894386, -0.0137650967, 0.1316941381, -0.0741768330, 0.0817440748, 0.1632048190, -0.0665230453, -0.0380240045, 0.0585766919, 0.0034899616, 0.0335133485, -0.1088203415, -0.0512400717, 0.2397616506, 0.1014857665, 0.0663448274, 0.2231826633, -0.0783118829, 0.0334458463, -0.0166420843, 0.0438516177, 0.3443237543, -0.1123147607, -0.0165010449, 0.2218652219, -0.0452195220, 0.1405916363, -0.1433904767, 0.0645102859, 0.2470844984, -0.0320617855, 0.1710993201, -0.1172789857, -0.1518805474, -0.1252645701, 0.1747669280, 0.0265096705, 0.3081502914, 0.0556677431, -0.3933673799, 0.0537213497, 0.0654171407, 0.0942918882, -0.1581446975, -0.0868747383, 0.0290005654, -0.0278858915, -0.0318187624, 0.0179567020, -0.3087050915, -0.0089902077, 0.0173542593, -0.0096644470, 0.2045422643, 0.1276082546, -0.1897274107, 0.2431420088, 0.0104753235, -0.0593776256, 0.0959044918, -0.0446802489, 0.2222935706, 0.1739256084, 0.0978082716, 0.1791513562, 0.0011036952, 0.0268805400, 0.0427535661, 0.2361603081, 0.1778837293, -0.0250059254, -0.0535898283, -0.0804986134, 0.0096832663, 0.0842191577, -0.0433443971, -0.0635314584, -0.0154833971, 0.0988362283, 0.0974798948, 0.0822197348, -0.0476052240, 0.0052935090, 0.1561675370, -0.0154414186, 0.1533838063, 0.0921957865, -0.0774964094, 0.0402014181, -0.0079650395, -0.0849621892, 0.0374808051, -0.1160530075, 0.1880525500, 0.0222869236, -0.0481537133, -0.1029420346, 0.0470522009, -0.0238927547, 0.1444563270, -0.2025500685, 0.2851990759, 0.0511616878, -0.3031003773, 0.0203386862, 0.0060508996, -0.0693553463, -0.1094016209, 0.2320160419, 0.1656273752, -0.2001241297, -0.0397878513, 0.0569748543, -0.2129473686, 0.0501917079, -0.0586479120, -0.1832414418, -0.0305750109, 0.1471562833, -0.3276512325, 0.2033602446, -0.1334984750, -0.0096070953, -0.1522481143, 0.0292481240, 0.0677152947, -0.1446700096, -0.0044572377, 0.0712696910, -0.0753163770, 0.1050051674, -0.0503419042, -0.1950051337, 0.1333863884, 0.1250630170, -0.2541719675, -0.0530468673, -0.0639093593, -0.0468990244, -0.1160689965, -0.0352073684, 0.0853870288, -0.0227715354, 0.0753361732, 0.1071117371, -0.1620520204, 0.0462771952, -0.0300222225, 0.5545592904, -0.7702420950, -0.0716766194, 1.0669970512, -0.6217040420, 0.1893338710, -0.3029489219, 0.1545092762, -0.1696024537, -0.4699683785, 0.4414372742, 0.5624330640, 0.1245692745, 0.4927048683, 0.0652543977, 0.0241184868, 0.1085281000, -0.0933448523, -0.0275459699, 0.6681228280, 0.0606394373, 0.1258127689, -0.0994998291, 0.0298403054, -0.0484971814, -0.1300882548, 0.2006391734, 0.1945185214, -0.0725073665, 0.2303983718, 0.2088478953, -0.1579778492, 0.1259653866, 0.3071117997, -0.1061037406, 0.2689937055, 0.2063466311, 0.2000951022, 0.1143376678, -0.1440332979, 0.0009267667, 0.0315172561, -0.1931922436, 0.1191022545, 0.1413984001, -0.1791063994, -0.1194897518, -0.0734534562, 0.3498412967, -0.2953178287, 0.0042367168, 0.3323397636, -0.3822547793, 0.3189239502, 0.0215021688, -0.0103678051, -0.1177008376, 0.0368831456, 0.2592401206, -0.0924578607, -0.0698932707, 0.1670193523, 0.1395911723, 0.0017286742, 0.1190728545, -0.0845361724, -0.0150873223, -0.0275419820, 0.1081679538, 0.1447447389, -0.0326887444, -0.1555694342, -0.1546357125, 0.1833605617, 0.0675883591, 0.0675229952, -0.0085883019, -0.1657913029, 0.0215382501, -0.0111923460, 0.1826201230, 0.0862605795, 0.1083903462, -0.4892919362, -0.0283805039, -0.2371838093, -0.0405331925, -0.1531924754, 0.0751278102, 0.2219270021, -0.2146647573, 0.0434794240, 0.1751604527, -0.3732587993, 0.0494968183, 0.1796692312, 0.2120224983, 0.0977966711, -0.0560667589, 0.0995949656, -0.0330411308, 0.2443535328, -0.0448021591, 0.1710982025, -0.4015073478, -0.0041534915, 0.1760162115, 0.1375081241, 0.1174728721, 0.4481122792, 0.0279631112, -0.0180647168, -0.0101483520, 0.2794130147, 0.0622470528, -0.3449533880, 0.1383036524, 0.0042454046, 0.1481216401, -0.0528935641, -0.0228266865, 0.0448118560, 0.0413279906, 0.1828063428, -0.1082600206, -0.0596670173, 0.0839411020, -0.0435571969, -0.3208602965, 0.5552402139, 0.1691902280, -0.6588364244, 0.2430233210, -0.2681605518, 0.1213553771, -0.1309344769, 0.4707518816, 0.4347588718, -0.8169031739, 0.1451832354, 0.1616448313, -0.5047816038, -0.0626413450, -0.0781099945, 0.0412642024, -0.2600473762, -0.2266438752, 0.1208165437, 0.0299910400, -0.1046558395, -0.0508649424, 0.0807664320, -0.1204257011, -0.2921774387, 0.1203696355, 0.2222811580, -0.0572891347, 0.0627679005, 0.2003226727, 0.1242423654, 0.1714224666, -0.0734508187, -0.1460805237, 0.3897471428, -0.0144060627, 0.0545363985, -0.1077735052, 0.0566014983, -0.0573428385, -0.1729101241, 0.2317247093, 0.2507194281, -0.0233523548, 0.2209296077, -0.0098835025, 0.0424239673, 0.0634728521, -0.4893806577, -0.1991245747, 0.6439107060, 0.1477463394, 0.0127637004, -0.0874731913, 0.1805267334, -0.2947702706, -0.4987323880, 0.4659982622, 0.2700492442, 0.0648408383, 0.1456399858, 0.0073796967, 0.0643888190, -0.1032768786, -0.0142937647, -0.1494840533, -0.0602770410, -0.2192355245, -0.0256014653, -0.0410908945, 0.0072180294, -0.1049928069, -0.1520017087, 0.1021759287, 0.0544293188, 0.1087159887, 0.0847710595, -0.0350917019, -0.1544302255, -0.0167237800, -0.0354129113, 0.0617160574, 0.0087288115, 0.1211209446, 0.1022923067, -0.0192297865, -0.0139360651, 0.0204897877, 0.0211769249, 0.0812553316, 0.0174472351, -0.0705411732, 0.1002252549, 0.0195962153, -0.0348458067, 0.1617141962, -0.0762643516, -0.1115348563, 0.2865971625, -0.1432325691, 0.2507060468, -0.1125331447, 0.0449182503, -0.2382872552, -0.3486120105, 0.0442342050, 0.0396572351, 0.0389625579, 0.0915294960, 0.1368516982, 0.0179353375, -0.1017237231, -0.0454330184, -0.2291845232, 0.3079711795, -0.0827104971, 0.0010485419, -0.1375837177, 0.0090653822, -0.0605188683, -0.1390215755, 0.0140181966, -0.1409777552, 0.0395123549, -0.0512283035, 0.1345336884, 0.0730891451, 0.0654507056, 0.1004568413, 0.0649270117, 0.2812888026, -0.0651074350, 0.2722780108, 0.0085639032, 0.1220672727, -0.2770112455, -0.0262294374, 0.0461995862, 0.0565160252, 0.1750240773, 0.1305349469, -0.0849455073, 0.0835417062, 0.0474964678, -0.1420296431, -0.1726007164, 0.2416149229, 0.0717812777, 0.1225943416, -0.1358697861, -0.1033907682, -0.3833515942, -0.0100099593, 0.1408402026, -0.2196201682, 0.2780071497, 0.0641495362, -0.0343812034, 0.1185434684, -0.2160007060, 0.4075095057, 0.0493274331, -0.1524039358, 0.2027988881, 0.0213623066, 0.1336451769, -0.0192820076, -0.0721240789, 0.1679795831, -0.1206630245, 0.0389681086, 0.1093022153, -0.0565705411, -0.0044998555, -0.0208465457, 0.0796933696, 0.0946759507, 0.0668176711, -0.1802106798, 0.1168194637, 0.2778641284, 0.0338382721, -0.0780860409, 0.0330076218, 0.2546066344, 0.1546585113, 0.1087041274, 0.2673371732, -0.0903612152, -0.1056682542, 0.2104441375, -0.0991030931, 0.6733062267, 0.2468872815, -0.2259042412, 0.1466714144, 0.1682130694, 0.2212561518, -0.2346709222, -0.0788927153, 0.5034871101, -0.0285113975, -0.0585933924, 0.0777048543, -0.1201879606, -0.0621201396, 0.0520128608, -0.2262042314, -0.0312108304, -0.1109017208, -0.0172799341, 0.0092390049, 0.0459577963, 0.0510637350, 0.0378805846, -0.1577116996, 0.0194242056, -0.0539376885, 0.1172619238, -0.1603369564, -0.0490138754, 0.0547777489, 0.1327275932, -0.0102161467, -0.0037097130, -0.1437359750, -0.0852763578, 0.2542976141, -0.0224794783, -0.1196725294, 0.0436246172, 0.0214188062, 0.2133629173, -0.0343602374, 0.1690521538, -0.0156108048, 0.0697954446, -0.1014540568, 0.1498291641, -0.2813639343, -0.0232715607, 0.0960211158, -0.0007658479, 0.1601818353, -0.0008533756, -0.0574121587, -0.0108670425, -0.0543577373, 0.1876437366, -0.0012751365, 0.1912210435, -0.0782998651, -0.1344815344, -0.1181841716, 0.2380202860, 0.0944406688, -0.0711277798, -0.1749502569, -0.2182225138, -0.0087966919, 0.0518109165, -0.0316098854, 0.0026302210, -0.1669497192, -0.0517970957, -0.2430545986, 0.1128667369, -0.1219628155, 0.2062919140, -0.0249144863, -0.1370977163, 0.1224066988, -0.0091526369, 0.0914501026, -0.1130782887, -0.0116574513, -0.0133933574, -0.2053303123, -0.0273735560, 0.0343212076, 0.0949069187, -0.3098918498, 0.1803180277, -0.1940367222, 0.1165376827, 0.0295575298, -0.0921395198, -0.0046163481, 0.2313614488, 0.0342640653, -0.0065304982, 0.1326144487, 0.0588328354, 0.0436864533, -0.0308943894, 0.0603564121, 0.1936079562, -0.3491013050, -0.0348871127, -0.2268425077, 0.0594633147, -0.0353401564, -0.1740355045, -0.1101077050, -0.1183797568, -0.1600259840, 0.3419589996, -0.3151744306, -0.0224080030, -0.0144743631, -0.1140932515, 0.0799467266, -0.3228038251, -0.1136225984, -0.0145211797, -0.2200387269, -0.2511949539, -0.0319956914, -0.2072844058, 0.1941237152, -0.0088248728, 0.0065455595, 0.5554355979, -0.2296515256, 0.2115119994, -0.1675729752, -0.0811559111, 0.0837908387, 0.0668019950, 0.0663010478, 0.1276153326, -0.2052336633, 0.0568456613, -0.2127863616, 0.1559013724, -0.0300632156, -0.0691328645, -0.0084975278, 0.4382784665, -0.4905344844, -0.3339209855, -0.1192977503, -0.0970854908, 0.1451357156, -0.1181767508, -0.1722880304, 0.2799558640, -0.2576178908, -0.0684751570, -0.0294839162, -0.0861014873, 0.0587211326, 0.0677094162, -0.1211820617, -0.0899622515, -0.0022481408, 0.0940740705, 0.1131962985, -0.0579918846, -0.0435740799, -0.1392236650, -0.0283117723, -0.0965744928, -0.0934454203, -0.1681963950, -0.0187955163, -0.3473215401, 0.3542083502, 0.0922592580, 0.0492203087, 0.2451871932, 0.2203134745, 0.3438555598, 0.0692626461, -0.0307709873, -0.0687555671, 0.1444278806, 0.1583672166, 0.3396488130, -0.2626362741, 0.2572840154, -0.1336114854, 0.1552762836, 0.0861631185, 0.1633332521, 0.0274744425, -0.0387629457, -0.1781130284, -0.1420309395, 0.0992478281, 0.1534629315, 0.0931184590, -0.0642130449, 0.1199032068, 0.1471421272, -0.1731245518, 0.0678322911, -0.1046695709, -0.0063594212, -0.1492744535, -0.4651526511, -0.1031510159, 0.4675829411, -0.0733786151, -0.0399235450, -0.3074938953, -0.0488446578, -0.2051177174, -0.5153691173, -0.2234636247, -0.1546132863, -0.0232915655, -0.0668375492, -0.0977720022, -0.3477755785, 0.2780253589, -0.2115012258, -0.1028534248, 0.6182358265, 0.1294260770, 0.2657802999, -0.0580079854, -0.0604792498, -0.0070567252, 0.1633712649, 0.1261365861, 0.1082826555, -0.2343857884, 0.2876390517, 0.0533364639, 0.0678454936, 0.2552646995, 0.0088844271, -0.1491970569, 0.2038348615, 0.0640861467, -0.0623844750, -0.2151158303, -0.1401537061, -0.2552227378, -0.2070976943, -0.1240875944, 0.0910550803, -0.0973030925, 0.0548438802, -0.1384716034, -0.2230610549, 0.2344668210, -0.4319931865, -0.1526793689, 0.3452099562, -0.1203165799, -0.0082508698, -0.0739101917, -0.0992048681, -0.2142429948, -0.0213552248, -0.0344132707, 0.1596084982, 0.1342043132, -0.0983023122, 0.1380271912, 0.0076015564, -0.0280138664, -0.3188701868, -0.1103148162, 0.2130530924, 0.0969483852, 0.0535615385, -0.1499436349, -0.1691538841, -0.1041828394, -0.0137034794, 0.2590852976, 0.2060427368, 0.1503148526, 0.1645701528, 0.1300532073, 0.1508463621, 0.1535468102, -0.5492768288, -0.2372242808, 0.2436229885, -0.0081763342, -0.0426746234, 0.0846400559, 0.0037711984, -0.1739155799, -0.1198997125, 0.2063561827, 0.0703497306, -0.0048414171, -0.0897700116, 0.1895120591, -0.1615407616, 0.1628194451, -0.2473415434, -0.1607588530, 0.0678511932, -0.0142561477, 0.0606655367, -0.0156193729, -0.0552455969, -0.1864296794, -0.1270461679, 0.2024835944, 0.1489278376, 0.1994617283, 0.0952541903, 0.0266553480, 0.1126662791, 0.0753217712, -0.1705846190, -0.1956002563, 0.2197376192, 0.0667397901, 0.1959937066, 0.0909330547, 0.0317942128, 0.0098034889, -0.0850488991, 0.0771474689, -0.0132258032, 0.0560415834, 0.0028944348, -0.0768251270, -0.1497957557, -0.1378315985, -0.2835070491, -0.2027962208, -0.0101720709, 0.1851397306, 0.1711025387, -0.0252939165, -0.0629190579, -0.0963263735, -0.0743083656, 0.0318852440, 0.0792085379, 0.0914805010, 0.1392326504, -0.1137648523, -0.0732777044, 0.1799734682, -0.2627396584, 0.0295732394, 0.0945389047, -0.0604689382, 0.2410747409, -0.0649186224, -0.1019522250, -0.1024633050, -0.0560010597, 0.2937129140, -0.0251278579, 0.1842508018, 0.1247590110, -0.0695493147, 0.0139689371, -0.0537026264, -0.2379639745, -0.1693848372, 0.1942657232, 0.1774493009, 0.2279419005, -0.0293712802, 0.0120080765, -0.0441102237, -0.0446610712, 0.0224471837, -0.1693629771, 0.1732494235, -0.1211550757, -0.0318734683, 0.1583574116, 0.0498738103, -0.5627083778, 0.0724232420, 0.2109200209, 0.0143351741, 0.0105640562, 0.0482915118, -0.0864718035, -0.1512792110, -0.1543250829, 0.1646470875, 0.0070782332, 0.0134523809, -0.0917988196, 0.0192734394, 0.1587599367};

#endif

#endif
