//Numpy array shape [3, 3, 8, 4]
//Min -0.250000000000
//Max 0.250000000000
//Number of zeros 84

#ifndef W7_H_
#define W7_H_

#ifndef __SYNTHESIS__
weight7_t w7[288];
#else
weight7_t w7[288] = {0.125, 0.000, 0.125, 0.125, -0.250, 0.000, 0.000, 0.000, 0.125, 0.000, 0.250, -0.125, 0.125, -0.125, -0.125, 0.125, -0.125, -0.125, -0.125, 0.000, 0.250, 0.000, 0.000, -0.250, 0.125, 0.125, 0.125, 0.000, -0.125, 0.000, 0.125, 0.000, -0.125, 0.125, -0.125, -0.125, -0.250, -0.125, -0.125, 0.125, 0.000, -0.125, -0.125, -0.125, -0.125, 0.125, 0.125, -0.125, -0.125, -0.125, -0.125, 0.125, 0.000, -0.125, 0.000, 0.125, 0.000, -0.125, -0.125, -0.125, 0.125, 0.000, 0.125, 0.000, -0.250, 0.000, 0.125, 0.125, 0.000, -0.250, 0.125, 0.125, -0.125, 0.125, 0.250, 0.250, -0.125, -0.125, 0.000, -0.125, -0.125, 0.250, 0.000, 0.250, 0.000, 0.125, 0.000, 0.000, 0.250, 0.000, 0.000, -0.125, 0.000, -0.125, -0.125, 0.000, 0.250, 0.000, -0.250, -0.125, 0.000, 0.250, 0.000, -0.250, -0.125, 0.125, 0.125, 0.000, 0.125, 0.125, 0.125, -0.125, 0.125, 0.000, 0.125, 0.000, 0.125, 0.000, 0.125, -0.125, -0.125, 0.250, 0.125, -0.125, 0.125, 0.000, 0.125, 0.000, -0.125, 0.000, 0.000, -0.125, -0.250, 0.000, 0.000, -0.125, 0.125, 0.125, 0.000, 0.000, 0.125, -0.125, 0.125, 0.000, 0.125, 0.250, 0.250, -0.125, 0.125, -0.125, 0.125, -0.125, 0.000, -0.125, 0.125, -0.125, -0.250, -0.125, -0.125, 0.125, 0.125, -0.125, 0.000, 0.250, -0.125, -0.125, 0.125, -0.250, -0.125, 0.125, 0.125, 0.000, 0.125, -0.125, 0.125, 0.125, 0.250, 0.125, -0.125, -0.125, -0.125, 0.000, 0.000, 0.000, -0.125, 0.000, -0.125, 0.000, 0.000, -0.125, -0.125, 0.250, -0.125, 0.125, -0.125, -0.250, 0.125, 0.000, 0.000, -0.125, -0.250, 0.125, -0.250, 0.125, 0.000, -0.125, 0.000, -0.125, 0.125, -0.125, 0.000, 0.000, 0.000, 0.125, 0.125, 0.125, 0.125, -0.125, 0.000, 0.000, 0.000, 0.000, 0.125, 0.125, 0.000, 0.125, 0.000, -0.250, 0.125, 0.000, 0.000, -0.125, -0.125, -0.125, -0.125, 0.125, -0.125, 0.000, 0.125, 0.125, 0.125, 0.000, -0.125, 0.000, 0.125, 0.125, 0.125, 0.000, 0.125, 0.125, 0.000, -0.125, 0.125, 0.000, -0.125, 0.000, 0.000, -0.125, -0.125, -0.125, 0.125, 0.125, 0.125, 0.000, -0.125, -0.125, 0.000, 0.125, 0.125, 0.000, 0.125, -0.125, -0.125, 0.000, 0.000, -0.125, 0.125, -0.125, -0.125, 0.000, -0.125, -0.250, 0.000, 0.000, 0.125, -0.125, -0.125, -0.125};

#endif

#endif
