//Numpy array shape [3, 3, 8, 16]
//Min -0.595339119434
//Max 1.140700101852
//Number of zeros 0

#ifndef W8_H_
#define W8_H_

#ifndef __SYNTHESIS__
model_default_t w8[1152];
#else
model_default_t w8[1152] = {-0.0554486476, -0.0767965019, -0.1128211990, -0.0560524911, 0.1326524317, -0.1125626266, -0.0938046351, 0.0868691579, 0.0365574211, -0.2126099765, -0.1247902066, -0.0500233285, -0.0920728371, -0.0769520998, -0.0549558885, -0.3644003868, 0.1177832410, 0.0408875123, 0.0211068876, -0.0871564522, -0.0835955068, 0.0727118179, 0.0459150523, 0.0445770621, -0.0542148612, 0.1058838740, -0.2184143066, -0.2196555436, 0.1696634442, -0.0328068845, -0.1682804972, 0.0038559129, 0.0944018662, -0.1747398376, 0.0404351652, -0.1504123360, 0.0650773793, 0.1132111102, -0.0069307261, -0.3027510345, -0.1557513475, -0.0620723516, 0.1190077513, -0.2484365404, 0.3388684392, 0.0228498187, -0.1243909225, -0.1233217716, 0.3387285471, 0.0585495569, -0.0688974857, -0.1127136573, 0.0477292277, 0.1921944767, -0.1190273389, -0.3464482129, 0.1960255355, 0.0582482554, -0.0816571116, -0.0803451836, 0.0771300048, 0.1505997628, -0.0553956293, -0.3178030550, 0.0857362673, 0.1276366711, 0.1691346169, -0.0919947922, 0.2364334613, -0.0097978944, -0.1677510887, -0.0420928374, -0.2150183618, -0.1804528087, -0.1342283040, 0.0362753309, 0.1491910815, -0.0818540975, -0.0635258108, -0.2982115149, -0.0199609213, -0.1858523190, -0.2439876348, 0.0765677541, 0.3964871764, 0.1122804061, 0.1969863623, -0.1127031669, -0.0375970080, -0.3900914192, -0.3897528946, 0.1012711897, 0.4111852944, 0.1201777831, 0.1087055802, -0.3537077904, 0.0061926981, 0.0153181525, 0.1095704436, 0.1867645830, -0.2189384252, -0.0784807578, 0.1220037565, -0.3010703623, 0.0920619592, 0.1185231730, 0.1590667963, 0.0946234092, -0.0449168384, 0.1679708213, 0.1398495883, -0.2275601625, 0.0425639860, -0.0291908588, 0.1431458443, -0.0319077373, -0.0506549738, 0.0463076942, 0.0939683467, -0.3084430695, -0.0821292847, -0.0016505332, 0.0734156892, 0.1280034184, -0.2227016389, -0.0220002867, -0.2428443283, -0.0411199369, 0.0512625799, -0.1611821204, 0.2030970454, 0.0215872638, -0.1474736333, -0.0237447452, 0.1107304320, -0.0977609977, -0.0489671901, -0.1067109108, -0.0401878841, 0.0561290048, -0.1116625816, -0.1373124570, -0.0281329248, 0.0790762976, 0.0276568122, 0.0183603875, 0.2417212874, -0.0762732029, -0.2475215048, 0.1196091548, 0.2121357769, -0.2031644136, 0.0634756610, -0.0481220745, 0.0439639091, 0.0952539816, -0.0680851638, 0.0659738854, 0.0881951675, 0.0247722846, -0.0967043936, -0.0915557966, 0.2706515789, 0.2108730674, -0.0678851083, 0.1068918854, 0.1671957821, -0.0149346357, 0.0281466935, 0.0229238253, 0.1458547264, -0.0996427089, -0.0728952289, 0.1717938632, -0.0411500856, -0.1119012535, 0.0701199844, 0.0819244236, 0.0587648638, -0.1250142753, -0.0894961953, -0.0431752689, -0.1382670105, -0.0064116293, 0.1262318194, -0.1060245484, 0.2121348381, 0.0805747807, -0.2175971568, 0.1920463592, 0.0489100330, -0.1194036081, -0.4305408299, -0.0071786079, -0.0573452637, 0.0038922708, -0.2520841062, 0.0304315947, -0.0761469156, -0.0827600807, -0.0895725489, -0.0643571913, 0.0036965478, 0.0106116943, -0.1487373561, 0.1525988877, -0.0719960332, -0.0052511976, -0.1444142163, -0.1472486705, 0.1379766613, 0.0581035055, -0.2066303343, -0.1196234375, -0.1095836982, -0.1694281250, 0.2065247148, -0.0457112528, -0.0369714722, 0.0508600548, 0.2036050558, -0.1398455352, -0.1119356826, -0.0837235898, -0.1481909603, -0.2294048965, -0.1218120083, 0.0127329007, 0.0393692032, -0.1428099573, -0.0100504141, -0.2051356286, 0.0799213573, -0.0343556888, -0.1884147823, 0.0185885783, 0.1337896138, -0.1239059344, -0.0908784047, -0.1135769561, 0.0875932276, 0.0190906059, -0.1614912003, 0.1115845814, 0.0423373505, -0.1517382562, 0.0800406784, -0.1521400213, -0.3817169964, 0.0855092108, -0.0625932291, -0.0430133156, 0.0902513266, -0.2550653219, 0.1012280881, -0.2797651589, -0.1778237075, -0.0147226388, -0.1447020620, 0.0504458286, -0.0418197066, -0.3074073195, 0.0295671951, -0.1658810228, 0.3219750822, 0.1655860245, 0.0627878606, 0.0185659323, -0.0973763615, 0.0361673012, 0.3443944752, -0.1160141453, -0.2742418051, 0.1195675582, -0.0472949259, 0.1268499941, 0.0576770790, -0.1601274312, -0.0156612992, 0.0583199970, -0.1270295233, 0.0580985583, 0.0058456981, -0.0091862511, 0.0821093693, -0.2628961802, 0.2260190099, -0.1303165257, 0.0325853303, 0.0464831591, 0.0029412054, 0.1066543236, -0.1667805612, 0.0681099147, 0.0363195688, -0.0936515853, 0.0583337396, -0.1082362905, 0.0451551042, 0.0380424261, -0.1023804918, 0.0902309269, -0.0530204512, -0.2301818132, 0.0873270556, -0.0615044497, -0.1508215368, -0.1549628675, 0.1667793542, 0.0907479227, -0.1331575066, -0.0617025122, -0.1170034781, -0.0443991572, -0.0768936798, 0.1821285188, -0.2091103494, 0.0001864014, -0.0218923688, -0.1312991828, -0.0771599934, 0.0396360010, 0.0516643636, 0.1294715106, 0.1239645481, 0.0368840210, -0.0804904848, -0.0668165460, 0.0421071537, 0.1071777567, -0.0138455722, -0.1975297779, 0.0134095429, -0.1220857874, 0.0545763336, -0.2531955838, -0.1592121273, 0.0249395687, -0.0677753612, -0.0607567839, -0.3118463457, 0.0773526207, -0.3597744107, 0.2602012753, -0.1215178147, 0.1143749282, -0.2019164562, -0.1972511113, 0.1276156753, 0.1055248380, -0.2649068236, -0.0202252939, 0.1358625293, 0.1677787304, -0.0317432284, -0.2527424991, 0.1161588803, 0.1997876167, -0.1119486392, 0.1706259251, -0.0011063517, -0.1320012361, 0.0619005300, 0.0089464821, 0.0985577554, -0.1622626036, 0.0608414635, -0.0531198718, 0.0152146732, -0.1988666803, -0.0750880316, -0.1245772615, 0.0855353624, -0.0302556623, 0.1087121814, -0.3232295811, -0.1400653422, -0.0535403751, 0.0736399963, 0.1074511111, 0.1378126442, 0.1045332775, 0.0745830312, -0.1025561094, 0.1831736565, 0.0044448161, -0.1804558486, 0.0973583460, 0.0680787787, -0.0820593163, 0.0264948402, 0.0079177488, 0.1084086224, -0.1271490753, -0.0290529598, 0.0984000340, -0.0466321781, 0.0475244187, 0.0019704090, -0.2227452844, 0.1058227792, 0.0956830457, 0.1980913728, -0.0242101252, 0.0695939288, -0.1605431736, 0.0285926312, 0.2066105455, 0.2514156401, -0.2382146418, 0.0321058109, -0.2094898671, 0.0373352990, -0.1200309321, -0.1284931153, -0.1828300208, 0.0623335205, -0.0646606013, -0.0990077481, -0.2169321775, 0.1646695882, -0.0595621057, 0.0179821737, -0.5298091173, 0.0059749521, 0.0952471271, 0.0690200254, -0.0192826074, 0.0820943043, -0.0644196495, 0.1270590276, 0.2656183243, -0.0533877648, 0.0149586694, 0.0899304897, 0.3239508569, -0.2057541162, 0.1736380160, 0.1579489708, -0.2494620383, 0.1226631254, -0.0759911314, 0.1281529069, 0.1067686602, -0.0151335876, -0.0175190028, 0.0194326807, -0.0122628715, 0.1155074835, 0.0464280657, -0.0248638615, 0.2758563161, -0.3926648498, 0.2034063935, 0.0786358118, -0.1427295655, -0.1354069561, -0.1409935206, -0.1204279289, -0.1626881212, -0.1281742603, 0.1691773981, -0.1029681787, -0.0974828452, 0.0783634111, 0.0703892633, 0.0137697766, 0.0356683619, 0.0558673814, 0.0037468974, -0.1333800554, 0.0200563353, 0.1148489416, -0.1533564925, -0.0174832102, 0.0039121048, -0.1344435066, 0.1060577482, -0.0507427529, -0.0069748349, -0.4549542367, -0.0596353114, 0.0814199820, 0.0894926712, -0.2646685541, 0.0093896557, -0.2064933628, -0.0124731995, -0.0152297048, -0.0589536987, 0.1624667645, 0.2631632388, -0.1648090929, 0.1108676195, -0.1099621654, -0.0693740547, -0.1420867890, 0.0563479960, 0.0706266314, 0.0685823038, -0.2586957812, 0.0704282746, -0.1565763056, 0.0783071816, -0.0511505641, 0.1597552150, -0.1364218891, 0.1285869181, 0.3578380942, -0.0306865051, -0.1178790629, -0.0237933695, -0.1078626662, 0.0849426091, 0.0635942444, 0.0517742075, 0.0432943255, 0.0700950995, 0.1056333482, 0.1552374214, -0.1391569525, 0.1895936877, -0.1430919617, 0.1016525775, 0.2076862007, -0.0314063467, -0.0409795977, 0.2079355866, -0.1545993984, 0.0246419609, 0.0714356974, 0.2271828651, 0.1051000282, 0.0470537022, -0.0339786485, 0.0523532480, 0.0038993484, 0.0281460565, 0.0079464400, -0.0114547014, 0.2976220548, 0.1026140451, 0.0735001713, 0.1339540482, 0.0934392437, 0.1485269666, -0.1119575799, 0.0319573916, 0.0343746506, 0.0949144065, -0.0429119281, -0.0100849830, 0.1503982842, -0.0693279803, -0.1508946866, 0.1640889347, 0.0805152878, 0.0105268732, 0.0741425082, -0.0215458144, 0.1313614696, 0.1802681684, -0.0806014612, 0.1302255541, 0.0485061817, -0.0906696692, -0.0509995408, 0.0944788605, 0.0681877211, 0.0241910815, 0.0959405899, 0.0229325611, 0.1427495629, -0.1442681253, 0.1473356932, -0.0433538333, -0.0981944576, -0.1040059254, -0.2891918123, 0.1321346611, 0.3004628122, 0.0293075088, 0.0266330037, 0.0502061099, -0.0839527175, -0.1713558286, -0.2919247150, -0.2135381252, 0.0286881030, -0.1014730930, 0.0899006277, -0.0763460547, 0.0360082462, -0.0721097365, -0.1688278466, 0.1771214306, 0.2286953777, -0.1045115888, -0.1915843040, -0.2130242437, 0.2314505726, 0.0301858634, 0.0322420672, 0.0246864706, -0.1638435572, 0.2143567204, 0.0885134563, 0.0991630927, 0.0082812943, -0.0394553356, -0.0826507360, -0.1599934548, -0.0135329682, 0.3000544012, 0.2111951560, 0.1456770003, 0.0106699020, 0.0079566678, -0.0686015636, 0.1043515280, -0.2003748715, 0.0957837775, 0.1159165800, 0.1508601606, 0.1371762455, -0.1449630708, 0.1988945752, 0.1834802479, -0.3141140938, -0.0812400132, -0.1123647690, -0.0433942638, -0.0104962150, -0.0560548939, -0.1134672537, 0.1353298724, -0.3025469184, -0.0877572298, -0.0130165899, -0.1564161479, 0.1352245659, -0.1007249802, -0.0588715710, 0.2139173448, -0.2913237810, 0.0234426297, 0.0668650791, -0.1900657713, -0.2816265821, -0.0712821782, -0.2232234329, -0.2566669583, -0.3022371233, 0.0590528809, 0.0324800573, -0.3168844283, -0.2290845215, 0.1216643229, -0.1510625929, -0.0003571017, -0.0254320092, 0.0676297098, 0.1379790157, -0.0803990513, -0.0385314971, -0.1016907841, -0.1804384887, 0.0923879817, -0.2524388731, 0.0032944852, 0.0672761500, -0.1713560671, 0.2105467319, 0.1170280427, -0.2334466577, -0.1673021019, 0.0701173246, 0.1080057919, 0.1442835480, -0.0017569093, 0.0249392688, 0.0934697241, 0.0785771832, 0.1432550550, 0.0870367438, 0.0881606862, -0.3325781822, 0.0066822446, -0.0810519531, 0.0208119676, -0.0288585946, 0.0612978637, -0.1660616696, -0.0488692448, -0.5953391194, 0.0526585802, -0.1257981509, 0.0686019808, -0.2307065725, -0.0497513823, 0.2900511026, -0.1017555222, 0.0523192324, 0.2457026094, -0.0913420245, -0.0783544555, -0.0828799382, -0.1508292109, 0.1516606808, 0.1123171821, -0.1442376673, 0.1276675016, -0.0840735435, 0.0925009027, -0.0432845727, 0.1130848005, 0.0745466426, -0.1516720355, -0.4701651335, 0.2462994009, 0.1184065938, 0.0557548553, -0.1737601757, -0.2579345703, 0.4401283860, -0.0192496143, -0.1626385301, -0.1749312133, 0.0189373065, -0.1621772200, -0.3218401074, -0.0955808163, 0.4616861343, -0.0193191580, -0.1468641758, -0.2505024672, 0.0282209534, -0.1152199581, -0.4239690900, -0.1599402130, 0.3320274651, 0.2364773601, -0.2213171422, -0.1482470483, -0.0001046608, -0.1022430435, -0.2211957276, 0.1236604154, 0.2514780164, -0.0720087737, 0.0081785042, -0.2203910798, -0.0130493101, 0.0950847194, -0.3000494838, -0.0623062663, 0.0773248971, 0.0958621949, -0.0994196609, -0.2155081928, -0.0592030361, 0.0874586627, -0.3958705068, -0.0321874507, 0.1221779138, 0.1530287266, 0.0433069132, -0.2664344907, 0.6091722250, 0.1087437868, -0.2551826537, -0.0492811017, 0.1670308858, 0.2557919323, -0.0782992244, -0.2737216055, -0.0098434752, -0.0052526542, -0.0647140890, -0.1342459172, -0.1386395544, 0.1339268237, -0.1006996781, -0.1952597946, 0.1397373676, 0.0601290390, -0.0703788921, 0.0113085946, -0.0177836735, 0.2648903430, -0.0684746951, -0.1634227782, -0.1315729320, 0.0159791596, -0.1497355103, -0.3876290917, 0.3110394180, 0.1316549182, -0.1978048831, -0.1391312778, 0.0085478183, 0.0279015005, -0.1510517895, -0.2843488455, 0.2564620674, 0.1603129506, -0.1677765250, -0.1385113150, 0.0096882479, -0.0936323926, -0.3124603331, -0.3972615898, -0.1723314375, 0.2183063775, -0.0233644582, -0.2110964358, -0.2246202528, 0.0741436705, -0.1694464535, -0.2809632719, -0.1340686828, 0.0823772997, 0.1502467245, -0.1311572939, 0.0232061092, -0.0177345071, 0.0945277885, 0.0842840672, 0.1380625218, -0.0756090879, 0.0285811257, -0.0860276669, -0.0364380665, 0.0227429532, -0.2414027452, -0.0007481677, 0.2021407783, 0.0201996099, 0.0115978979, -0.1611562967, -0.2952737212, -0.0824008286, -0.1435219347, 0.0610080808, -0.1034456193, -0.0648071170, 0.0686068684, 0.0319997072, -0.0313925669, -0.0910959616, -0.0500403754, 0.1928623021, -0.0841228589, 0.0839976817, -0.1025678813, 0.0271768179, 0.0299349111, 0.1039031371, -0.0800779834, 0.0263062436, -0.0317886248, -0.0060673635, -0.0274880454, 0.0930404663, -0.1170076579, -0.0186538659, -0.1633424014, 0.0170205161, 0.5034200549, 0.1318565905, -0.0380928554, 0.0473980829, -0.4085292816, -0.2082934231, 0.1997985095, -0.0648365319, 0.3009539545, 0.0398393385, 0.0616984181, -0.0568067320, -0.0327326581, -0.1028518081, 0.0166022293, -0.0245047845, 0.2441918999, -0.0168026648, 0.0734638870, 0.0662306845, 0.0759565830, -0.0135215912, -0.1042911857, -0.1593247652, 0.3268203437, 0.0879324749, -0.2069319636, -0.3231579065, -0.1805461794, 0.0492890440, 0.2005697936, -0.0784478188, 0.2139768898, 0.0316698775, -0.1179674864, -0.3800577223, -0.0877390653, -0.0398245044, 0.1921052784, -0.0922768712, 0.1952243149, 0.0252199937, -0.0057852524, 0.0498482250, 0.4703819156, 0.0148110613, 0.1558311433, -0.0019358941, 0.0140593657, 0.2436943054, 0.0372228213, -0.1351762712, -0.0224996638, 0.0168668572, 0.3204386234, -0.0566497222, 0.1490377188, -0.0491533242, -0.1026991755, -0.3820554018, 0.1852107197, 0.0555702113, 0.4289716780, -0.0213744622, 0.1063237190, -0.0240247846, -0.1857620925, -0.1134678870, -0.0451017544, -0.1388141960, 0.0591173321, -0.3305563033, 0.0017643735, 0.0580114871, 0.0234759189, 0.0691807568, -0.0195505470, -0.1217682734, -0.1039290577, -0.4181746542, 0.0079548061, 0.0002737675, 0.0674118698, -0.0414039865, 0.0111041544, -0.2347029895, 0.1022545174, -0.2538144290, -0.0002291997, 0.0109370491, 0.1068392396, -0.0206953436, -0.0780377537, 0.0126153277, -0.1265838444, -0.2469065189, 0.4213033319, 0.0498633087, -0.0814498439, -0.1096215993, -0.1238015443, -0.1135030314, 0.1112872511, -0.2573372126, 0.2678660750, 0.0661116987, -0.0801796094, 0.0167452712, -0.0657314807, -0.1578470618, -0.1101834178, -0.3881639838, 0.2928235829, -0.1182637438, 0.0629884675, -0.0088938111, 0.1557783782, -0.0031568927, 0.1659132987, -0.2338484824, 0.2687160075, 0.1032799557, 0.1239649281, 0.1672285795, -0.0850544274, 0.1175883412, 0.0854195878, -0.0029695905, 0.1684962362, 0.1129098162, -0.0041554207, -0.0239649620, 0.1449065655, -0.0941911787, 0.0424318686, -0.1999348849, 0.1781063378, 0.0234673284, -0.0404664651, 0.0500885509, -0.2343984097, 0.1531042755, -0.1846699268, 0.0446059033, 1.1407001019, 0.1564983726, -0.0048647039, 0.1378710717, -0.1517047286, 0.0549521968, -0.0961581767, 0.2739792466, 0.6516671777, 0.1752304882, -0.1520105749, 0.0685015842, -0.0140913436, 0.1414353400, -0.2597500682, 0.1225613356, 0.4099946320, 0.1379568875, -0.1480848342, 0.2060181946, -0.2204450071, 0.0097994246, -0.0206391942, -0.0794125348, 0.3490394950, -0.0704098865, 0.0727228075, 0.0916975215, 0.1273525804, 0.0218535047, 0.0867435709, 0.0491684303, -0.0097360425, -0.1048698127, -0.1543910801, -0.0920777768, -0.0046702484, -0.1215666011, 0.0615149513, -0.0479205735, 0.1362677962, 0.0698012784, -0.1153844371, -0.0070753330, -0.0822853297, -0.0151295308, 0.0320442915, 0.0838840976, 0.2916814387, 0.0908459276, 0.0394667313, 0.1840388477, 0.0090477932, 0.1590657532, 0.0057214936, -0.0179663915, 0.0661756545, -0.0017223547, -0.1544783711, 0.0767709091, 0.0834593326, 0.0795828402, 0.1017109454, -0.0749135762, 0.3236412108, -0.0005640259, 0.0082653249, 0.1202029586, -0.0973951146, 0.0894815102, 0.0124757914, -0.1867359430, -0.3927937150, -0.1335296333, -0.4866101444, -0.1251428574, 0.0524854846, 0.0307394825, 0.1281143576, 0.0192840025, 0.1522835940, -0.1227335036, -0.1260153055, -0.0811340734, -0.1040216237, -0.0448275730, 0.0466090776, -0.1186812520, -0.2100561559, -0.0652369335, -0.1464636624, -0.2066158801, 0.1682328284, 0.0505717322, -0.0600612015, 0.0542207099, 0.1262361556, 0.0216797851, -0.1354147643, -0.1307304054, -0.0184324570, -0.1335474551, 0.0598054156, -0.0666811243, 0.2485539168, 0.0385618955, 0.0483892746, -0.0644432157, 0.0624319278, 0.1375004500, -0.1441542506, 0.0292525832, 0.1647516191, -0.0502651893, 0.0660952926, -0.0795708001, -0.0646057129, -0.0588085316, 0.1681265980, 0.1957403123, 0.0835857615, -0.0584769212, -0.2630706429, -0.1738841832, 0.1108299494, -0.1020421684, 0.0398905724, 0.0891317874, 0.3403684795, 0.0251253229, -0.1134227738, -0.0293182600, -0.0431090072, -0.0012324691, 0.0242991503, 0.0980936959, 0.0743119046, 0.0644513965, 0.1148644611, -0.0567897558};

#endif

#endif
