//Numpy array shape [3, 3, 8, 4]
//Min -0.250000000000
//Max 0.250000000000
//Number of zeros 96

#ifndef W11_H_
#define W11_H_

#ifndef __SYNTHESIS__
weight11_t w11[288];
#else
weight11_t w11[288] = {-0.250, 0.000, 0.125, 0.000, 0.125, -0.125, 0.000, 0.000, 0.000, 0.000, 0.125, 0.125, 0.000, -0.125, 0.000, 0.125, 0.250, 0.125, -0.125, 0.000, -0.250, -0.125, -0.125, 0.000, 0.250, -0.125, -0.125, 0.125, 0.000, 0.000, -0.250, 0.125, 0.000, 0.000, -0.125, 0.000, 0.250, 0.125, 0.000, 0.125, 0.125, 0.000, 0.125, 0.125, -0.125, 0.125, 0.000, -0.125, -0.250, 0.000, -0.125, -0.125, -0.125, -0.125, 0.000, -0.125, -0.125, 0.125, 0.000, -0.125, -0.250, -0.125, -0.125, 0.250, -0.125, 0.000, 0.125, -0.125, 0.000, -0.125, 0.250, 0.000, -0.125, 0.000, 0.125, -0.125, 0.125, 0.125, -0.125, 0.250, 0.125, 0.125, 0.125, -0.250, 0.000, 0.125, 0.000, -0.125, 0.000, 0.000, 0.000, 0.125, 0.000, -0.250, 0.000, -0.125, -0.125, 0.000, 0.125, 0.125, -0.125, -0.125, 0.000, 0.125, -0.125, 0.000, -0.125, -0.125, 0.000, -0.250, 0.000, 0.125, -0.250, -0.125, 0.125, 0.000, -0.125, 0.000, 0.000, 0.250, 0.125, 0.000, -0.125, 0.250, 0.000, 0.000, 0.000, 0.000, 0.125, 0.000, 0.125, -0.125, 0.125, 0.125, 0.125, -0.125, 0.125, 0.000, 0.125, 0.125, -0.125, -0.250, -0.250, 0.125, -0.125, 0.125, 0.125, 0.125, 0.125, -0.125, 0.000, -0.125, 0.000, 0.000, 0.125, 0.000, 0.125, -0.125, -0.125, -0.125, 0.125, -0.125, 0.000, 0.000, -0.125, 0.125, -0.125, 0.125, 0.000, -0.125, 0.125, -0.125, 0.000, 0.000, 0.125, -0.125, -0.125, -0.250, -0.125, 0.000, 0.000, 0.125, 0.125, 0.000, 0.000, -0.125, -0.125, 0.000, 0.125, 0.000, -0.250, 0.125, 0.125, 0.000, 0.000, 0.125, 0.000, 0.000, 0.125, 0.000, -0.125, 0.000, 0.125, 0.125, -0.125, 0.125, 0.125, -0.125, 0.250, -0.125, 0.000, 0.000, 0.000, 0.000, -0.125, -0.125, -0.125, 0.000, 0.125, 0.000, 0.000, -0.125, 0.125, 0.125, -0.125, -0.250, 0.125, -0.125, 0.000, 0.125, 0.125, 0.125, 0.000, 0.000, 0.125, 0.250, 0.125, 0.125, 0.000, -0.125, 0.000, 0.000, 0.125, -0.250, 0.000, -0.125, -0.125, -0.125, -0.125, 0.125, 0.000, -0.125, -0.125, -0.125, 0.000, 0.125, 0.000, 0.125, -0.125, 0.000, 0.000, -0.125, 0.125, -0.250, 0.000, -0.125, 0.000, -0.125, 0.000, -0.250, 0.250, 0.125, -0.125, 0.000, 0.125, -0.125, -0.125, 0.125, -0.125, 0.000, -0.250, -0.125, 0.000, 0.000, 0.000, -0.125, 0.125, 0.000};

#endif

#endif
