//Numpy array shape [3, 3, 16, 4]
//Min -0.599898695946
//Max 0.493976712227
//Number of zeros 0

#ifndef W14_H_
#define W14_H_

#ifndef __SYNTHESIS__
model_default_t w14[576];
#else
model_default_t w14[576] = {0.1361155808, -0.1003633067, -0.0672677159, 0.1307343692, -0.0099032708, 0.0528320260, 0.1431308389, -0.0114798564, 0.1392047405, -0.0080554467, 0.1418475509, 0.0757257417, -0.1584095955, -0.2379931062, 0.1543651521, -0.3743331432, 0.2337344289, 0.0229768250, 0.0737671554, 0.1993047893, 0.3287400007, 0.0495097339, -0.0155074624, 0.1084572598, 0.1377149373, 0.0859026462, 0.0111909313, 0.1050035655, -0.1970048100, -0.1726725698, 0.0880404189, -0.1213313490, 0.1299696714, -0.2335264832, -0.0515053310, 0.0570838489, 0.4507079720, -0.1038616747, 0.1296233982, 0.1229663342, 0.2031792849, 0.1289629042, 0.1336219758, -0.0071284655, 0.1004064977, -0.2400681973, 0.2988925874, -0.0635947734, 0.2388313115, -0.0706411973, -0.0396451652, 0.1439362317, -0.1994025260, -0.0894442052, -0.0506114326, 0.0869199187, 0.1993807703, -0.0158801544, 0.1347418725, -0.0091565661, 0.0561428629, -0.0010691656, 0.1235269085, -0.1957236081, 0.2781078517, -0.0021257731, 0.1870189607, 0.1610363424, -0.5249339938, -0.0957437754, 0.1550067365, 0.0178214107, 0.2427821755, 0.0272586755, 0.2074995637, -0.1319572926, 0.0003028717, -0.0081114965, 0.2073086202, -0.0522891022, 0.0995245501, -0.0177358482, 0.0715732947, -0.1024499759, -0.0207837354, 0.1429098397, -0.0540964976, 0.0932727158, 0.1725030690, 0.2433810830, 0.0932864100, -0.0166843422, -0.0672480538, -0.1677918583, 0.0621964969, 0.1548352242, -0.4501008987, 0.1580104679, -0.0066994685, -0.0421037823, -0.1913640499, -0.0435746163, -0.0857813433, -0.2112812102, -0.5998986959, -0.2423568964, 0.3884224892, -0.0265374221, -0.1235170588, 0.0041433861, -0.0355376452, -0.2320245802, -0.0253812373, 0.0283634067, 0.0516745932, -0.0303087756, 0.0515310392, 0.0169816539, 0.0269197095, 0.0399533100, -0.3708890080, -0.2201257050, 0.1719632298, 0.1668625623, -0.3172840476, 0.0984606892, -0.0048427186, -0.2065271437, -0.1190551147, 0.0898029208, -0.1307892054, -0.0006947831, -0.2419116497, -0.0321510769, 0.0601512603, -0.2541986108, -0.1155812517, -0.2618745863, -0.0042485888, 0.1921409369, -0.2523291111, -0.1738866270, -0.0590119548, -0.2335184515, -0.0575710088, 0.1208610609, -0.1224738285, 0.0439010523, -0.2950820625, -0.0792994201, -0.0230975766, -0.0485202894, -0.0816708207, 0.0471524298, 0.2740919590, -0.1564350873, -0.0855491906, 0.2955740392, 0.0911009982, -0.3714658022, -0.0142507423, 0.1158512980, -0.1566180438, -0.1585049927, 0.2037383914, -0.1369843632, -0.0784791186, 0.0631185398, -0.1822320521, -0.1010090113, 0.0459763259, 0.0514117777, -0.3264911771, 0.2401021719, 0.0964776129, -0.2839179635, -0.1032193154, -0.1093275547, 0.0124055529, -0.0856218264, -0.2456179708, 0.0355464518, -0.1177709252, -0.0904544890, -0.1795355976, -0.1397781819, 0.2530445457, -0.0958262980, -0.2502799332, 0.2625268698, 0.1379456073, -0.1404619068, -0.0504857004, -0.0311885960, -0.1021297500, 0.0354825482, 0.1508126110, 0.1557236463, 0.0314667560, 0.0154970670, -0.0718078166, -0.0840197206, 0.2038176805, -0.0593843721, -0.0121165626, 0.1302451938, -0.0172019619, 0.0060452493, 0.0666177571, 0.1648785174, -0.1002705395, 0.0911077857, 0.1383148432, 0.0139653822, -0.0120843416, 0.0604417212, -0.1558966190, -0.0432903469, -0.0518784933, 0.0862112716, 0.0999309272, -0.0565865934, -0.0867173374, -0.1689420491, 0.0043527870, -0.0439588167, 0.0517995879, -0.0289961156, 0.1414912194, -0.1399565637, -0.1402097493, 0.0762432069, 0.0310153496, -0.1639720649, 0.0103330603, 0.0416094400, 0.1236603707, 0.2036048323, 0.2043195516, -0.2482821345, -0.2765743434, 0.0441114046, -0.1954672635, -0.1303469241, 0.1371107548, 0.0408259183, -0.1170379743, -0.0082617914, -0.0890976042, -0.0879620239, 0.0264243409, 0.0101678567, -0.0612771213, 0.1437014937, 0.1064956561, 0.0380192362, 0.0108092641, 0.1086588278, 0.0676299408, 0.0437201709, 0.0229741503, -0.1418273598, -0.1370896399, 0.0897794440, -0.2211436480, -0.2172231674, 0.1597026885, 0.1022488549, -0.0366466530, 0.0386359803, 0.1267538816, 0.0232070591, -0.3086629212, 0.0080781672, -0.0660930797, -0.1503609419, 0.0214610081, 0.1156299487, 0.0113596711, 0.0293348804, -0.3588472903, -0.2541640103, 0.0892271623, 0.2104104757, -0.0252757054, 0.0332102664, 0.1142829657, -0.0184105933, -0.0250079595, 0.1741734147, -0.1677390933, 0.1150218472, 0.3392049670, 0.0349567942, -0.0672034621, -0.0653413683, -0.2059028596, 0.1199489981, 0.0527552515, 0.0877772868, -0.0072038136, 0.1214552969, -0.0374886245, 0.1489485800, 0.1118665710, -0.0252001751, -0.1559988558, 0.0560087971, 0.1725975573, 0.0622762255, -0.0952525437, -0.0683131814, 0.1599064171, -0.0846863165, -0.2350404114, 0.1259900481, 0.2074000686, -0.1577805281, 0.1549318284, 0.1374605298, -0.0098940078, -0.0179682672, -0.0281621274, 0.1145594865, 0.2298208624, 0.0498085953, -0.0438352823, -0.0653417557, 0.1650655568, 0.0141914794, -0.1764072925, -0.1758569032, 0.2849585414, -0.0486623943, 0.1608527005, 0.2253297120, -0.0760856494, -0.0671463832, -0.0424928255, -0.0353456326, -0.0758875161, -0.0003074837, 0.0703675076, 0.0439684838, 0.1005096063, -0.0954284221, -0.0840219706, -0.0042755157, -0.0900273770, 0.1537816674, 0.0658061057, 0.1094431132, 0.1892907023, 0.0512399673, 0.0642458275, 0.1837528497, 0.3889625669, -0.1098130643, 0.0162550081, 0.0499402285, 0.2336623371, 0.0130530139, -0.0324867368, -0.1104396880, 0.1668928117, 0.0924289823, 0.2861853242, 0.0865919068, 0.0069315461, -0.0596466288, -0.0216851439, 0.1888148338, 0.0569913425, -0.0428639315, -0.0593123585, -0.0123086488, 0.4939767122, 0.2220953852, -0.2406263202, 0.0238437820, 0.2705150545, 0.0798094571, 0.3090025187, 0.1343133450, 0.0432414189, 0.0317165144, -0.1043358445, 0.0566248000, -0.0993907005, 0.0344826840, 0.0460474044, -0.0264711864, 0.0691664070, -0.0468570404, 0.0030969321, -0.1274502277, -0.1004673466, 0.0545343272, 0.0000633834, -0.1490219831, -0.0164957400, 0.0597736873, 0.1704541743, -0.0439976379, 0.0360898152, 0.0472841784, 0.0226813033, 0.0727979392, 0.2915966511, -0.0159566142, -0.2117374539, 0.0640294701, -0.0664743558, -0.0428743362, 0.3065960407, 0.1284549981, 0.2072597295, 0.1944490224, 0.0523055457, 0.0531881079, 0.0636812449, -0.0602583662, 0.1172053739, -0.0020435138, 0.3759963214, 0.2149236202, -0.1602215171, -0.2239685655, 0.2872810662, 0.0213215165, 0.0967115313, 0.1822461188, 0.0960853025, -0.1432840675, -0.2571026683, 0.2029040754, 0.3600581884, -0.0280822199, -0.0955107659, -0.0048831804, 0.0243785214, 0.1798569560, -0.0325868651, 0.2992393374, -0.0329083391, -0.0386479162, 0.1073270515, -0.0586411804, 0.1139836237, -0.2118493021, -0.0349641927, 0.1242894605, -0.0102776662, -0.0599335544, -0.0445487611, 0.0583608299, -0.0223458949, 0.0316606425, -0.0471884087, 0.2928034067, 0.1341945827, 0.0828755796, 0.2905406654, -0.0323352739, -0.1016066894, -0.1609346569, 0.0904118195, 0.0451504067, -0.1064923629, -0.1086953431, -0.0156921335, -0.1164123788, -0.2204211950, 0.0179743562, -0.0569132380, -0.1568635255, 0.0265218467, 0.0659506097, 0.0685167834, 0.0475105271, 0.1706174612, 0.0493618324, -0.1922879517, 0.1878530830, 0.0672032088, 0.1260909438, -0.0294314548, 0.0267731529, 0.3610616028, 0.1593616605, -0.0084699737, 0.2568243742, 0.1028318480, 0.0058818227, 0.0363757461, 0.1646322608, 0.3015947044, -0.0195574872, -0.1272813529, 0.2096551508, 0.2896050811, -0.0161308758, -0.0549187064, 0.2504610717, 0.1186486408, 0.1081406772, -0.0873525441, 0.0014103940, -0.0011979430, 0.1231174991, -0.0057820710, 0.1208427027, 0.0285031293, 0.1114873588, -0.0936860591, -0.1132784933, 0.0165109728, 0.0296870135, 0.1359000951, -0.1690224856, -0.1524507403, -0.1416167319, 0.0242724773, -0.0042691501, -0.1748038679, -0.1500197649, 0.0670687705, -0.2148904651, 0.2564173639, 0.1558727324, 0.0256498680, 0.0914309695, 0.1059632748, -0.0844046175, -0.0289517120, 0.0275589265, 0.4008446634, 0.1703324616, -0.0367858075, 0.1233887747, -0.1121123508, 0.0134402113, 0.2776441574, 0.0969516411, 0.0899426788, -0.0729225650, 0.1223140508, 0.0257283319, 0.0794219449, -0.0546103530, 0.0895466506, 0.1623666435, 0.1973496675, 0.1471230835, 0.0374191329, -0.0439064056, -0.1051060334, 0.1803769916, 0.1545106024, 0.0694890320, 0.1200435013, -0.0399019122, 0.1462167352, 0.0983203948, -0.0879064575, 0.1514790952, -0.0587361194, 0.1058875620, 0.0616695397, 0.0769865289, -0.2158724070, -0.1642218381, 0.0947920606, -0.1166784838, 0.1384235471, 0.0903018042};

#endif

#endif
